<?xml version="1.0"?>
<opencv_storage>
<stage7>
  <maxWeakCount>20</maxWeakCount>
  <stageThreshold>-1.0053884983062744e+00</stageThreshold>
  <weakClassifiers>
    <_>
      <internalNodes>
        0 -1 1438 -2.4968436919152737e-03</internalNodes>
      <leafValues>
        2.8971961140632629e-01 -3.4632682800292969e-01</leafValues></_>
    <_>
      <internalNodes>
        0 -1 19779 6.3589736819267273e-02</internalNodes>
      <leafValues>
        -9.2898525297641754e-02 8.0022943019866943e-01</leafValues></_>
    <_>
      <internalNodes>
        0 -1 77572 1.9350694492459297e-03</internalNodes>
      <leafValues>
        -1.8917670845985413e-01 3.7273892760276794e-01</leafValues></_>
    <_>
      <internalNodes>
        0 -1 37960 -5.8434149250388145e-03</internalNodes>
      <leafValues>
        4.3310260772705078e-01 -1.3000264763832092e-01</leafValues></_>
    <_>
      <internalNodes>
        0 -1 14129 5.3635826334357262e-03</internalNodes>
      <leafValues>
        -1.1158826947212219e-01 5.6045222282409668e-01</leafValues></_>
    <_>
      <internalNodes>
        0 -1 49966 1.7404064419679344e-04</internalNodes>
      <leafValues>
        2.0667748153209686e-01 -3.0507758259773254e-01</leafValues></_>
    <_>
      <internalNodes>
        0 -1 45504 -1.1068898253142834e-02</internalNodes>
      <leafValues>
        3.8928955793380737e-01 -1.4972972869873047e-01</leafValues></_>
    <_>
      <internalNodes>
        0 -1 2167 3.7331562489271164e-03</internalNodes>
      <leafValues>
        -1.2790989875793457e-01 4.7735270857810974e-01</leafValues></_>
    <_>
      <internalNodes>
        0 -1 64120 2.4889823980629444e-03</internalNodes>
      <leafValues>
        -1.8286599218845367e-01 3.6924901604652405e-01</leafValues></_>
    <_>
      <internalNodes>
        0 -1 14607 3.2907023560255766e-03</internalNodes>
      <leafValues>
        9.4272248446941376e-02 -6.6607320308685303e-01</leafValues></_>
    <_>
      <internalNodes>
        0 -1 60833 4.7138426452875137e-03</internalNodes>
      <leafValues>
        -1.1401064693927765e-01 5.4347997903823853e-01</leafValues></_>
    <_>
      <internalNodes>
        0 -1 21456 2.8844457119703293e-02</internalNodes>
      <leafValues>
        -1.5739527344703674e-01 3.7847852706909180e-01</leafValues></_>
    <_>
      <internalNodes>
        0 -1 68706 -6.0185964684933424e-04</internalNodes>
      <leafValues>
        -4.2885720729827881e-01 1.5289035439491272e-01</leafValues></_>
    <_>
      <internalNodes>
        0 -1 68706 2.4696718901395798e-04</internalNodes>
      <leafValues>
        1.6516761481761932e-01 -3.8456928730010986e-01</leafValues></_>
    <_>
      <internalNodes>
        0 -1 58602 -1.2118290178477764e-03</internalNodes>
      <leafValues>
        3.2082998752593994e-01 -2.1650280058383942e-01</leafValues></_>
    <_>
      <internalNodes>
        0 -1 6078 7.6770470477640629e-03</internalNodes>
      <leafValues>
        -1.5192635357379913e-01 4.9404761195182800e-01</leafValues></_>
    <_>
      <internalNodes>
        0 -1 74116 5.4018441587686539e-03</internalNodes>
      <leafValues>
        -9.0715743601322174e-02 7.1797442436218262e-01</leafValues></_>
    <_>
      <internalNodes>
        0 -1 3871 3.7333401851356030e-03</internalNodes>
      <leafValues>
        -6.9113902747631073e-02 7.5469595193862915e-01</leafValues></_>
    <_>
      <internalNodes>
        0 -1 20699 -2.1780729293823242e-03</internalNodes>
      <leafValues>
        3.2802790403366089e-01 -1.9500769674777985e-01</leafValues></_>
    <_>
      <internalNodes>
        0 -1 58429 -9.3373097479343414e-04</internalNodes>
      <leafValues>
        -4.9813297390937805e-01 1.3817313313484192e-01</leafValues></_></weakClassifiers></stage7>
</opencv_storage>
