<?xml version="1.0"?>
<opencv_storage>
<stage5>
  <maxWeakCount>17</maxWeakCount>
  <stageThreshold>-9.2681360244750977e-01</stageThreshold>
  <weakClassifiers>
    <_>
      <internalNodes>
        0 -1 28898 -3.4216001629829407e-02</internalNodes>
      <leafValues>
        6.3999998569488525e-01 -2.9833546280860901e-01</leafValues></_>
    <_>
      <internalNodes>
        0 -1 6920 -2.9374703299254179e-03</internalNodes>
      <leafValues>
        3.8261145353317261e-01 -1.6377735137939453e-01</leafValues></_>
    <_>
      <internalNodes>
        0 -1 78298 -1.6610283637419343e-03</internalNodes>
      <leafValues>
        -4.7699847817420959e-01 1.2682536244392395e-01</leafValues></_>
    <_>
      <internalNodes>
        0 -1 1113 -1.7140856012701988e-02</internalNodes>
      <leafValues>
        5.7681471109390259e-01 -1.1792892962694168e-01</leafValues></_>
    <_>
      <internalNodes>
        0 -1 58662 2.1647831890732050e-03</internalNodes>
      <leafValues>
        -1.7520411312580109e-01 3.7735158205032349e-01</leafValues></_>
    <_>
      <internalNodes>
        0 -1 78297 2.6904619298875332e-03</internalNodes>
      <leafValues>
        1.4429071545600891e-01 -7.2592943906784058e-01</leafValues></_>
    <_>
      <internalNodes>
        0 -1 78328 2.6557612000033259e-04</internalNodes>
      <leafValues>
        1.2256372720003128e-01 -4.3830847740173340e-01</leafValues></_>
    <_>
      <internalNodes>
        0 -1 34260 -2.8350073844194412e-03</internalNodes>
      <leafValues>
        3.5989528894424438e-01 -1.7665971815586090e-01</leafValues></_>
    <_>
      <internalNodes>
        0 -1 28481 -3.5221070051193237e-02</internalNodes>
      <leafValues>
        5.2336794137954712e-01 -1.3517239689826965e-01</leafValues></_>
    <_>
      <internalNodes>
        0 -1 77573 -3.7101483903825283e-03</internalNodes>
      <leafValues>
        6.0083860158920288e-01 -1.2246332317590714e-01</leafValues></_>
    <_>
      <internalNodes>
        0 -1 21950 4.5469934120774269e-03</internalNodes>
      <leafValues>
        1.5580217540264130e-01 -5.3313273191452026e-01</leafValues></_>
    <_>
      <internalNodes>
        0 -1 76393 1.5941591933369637e-02</internalNodes>
      <leafValues>
        -1.5914413332939148e-01 5.1882249116897583e-01</leafValues></_>
    <_>
      <internalNodes>
        0 -1 58812 -2.4442447349429131e-02</internalNodes>
      <leafValues>
        4.0419226884841919e-01 -1.6054503619670868e-01</leafValues></_>
    <_>
      <internalNodes>
        0 -1 17484 -1.2688127346336842e-02</internalNodes>
      <leafValues>
        4.0988755226135254e-01 -1.6787838935852051e-01</leafValues></_>
    <_>
      <internalNodes>
        0 -1 65931 1.4558915048837662e-02</internalNodes>
      <leafValues>
        -1.6576829552650452e-01 4.1447299718856812e-01</leafValues></_>
    <_>
      <internalNodes>
        0 -1 21752 -7.3970115045085549e-04</internalNodes>
      <leafValues>
        -4.1780892014503479e-01 1.7036886513233185e-01</leafValues></_>
    <_>
      <internalNodes>
        0 -1 62069 2.0660723093897104e-03</internalNodes>
      <leafValues>
        -2.1614472568035126e-01 3.1783628463745117e-01</leafValues></_></weakClassifiers></stage5>
</opencv_storage>
