<?xml version="1.0"?>
<opencv_storage>
<stage11>
  <maxWeakCount>22</maxWeakCount>
  <stageThreshold>-9.4616764783859253e-01</stageThreshold>
  <weakClassifiers>
    <_>
      <internalNodes>
        0 -1 7631 -8.9677246287465096e-03</internalNodes>
      <leafValues>
        1.7695473134517670e-01 -3.3228841423988342e-01</leafValues></_>
    <_>
      <internalNodes>
        0 -1 68706 -1.4024629490450025e-04</internalNodes>
      <leafValues>
        -2.7985367178916931e-01 1.6891193389892578e-01</leafValues></_>
    <_>
      <internalNodes>
        0 -1 21458 -1.9257765961810946e-03</internalNodes>
      <leafValues>
        -5.2838724851608276e-01 8.5238076746463776e-02</leafValues></_>
    <_>
      <internalNodes>
        0 -1 33143 6.9802820682525635e-02</internalNodes>
      <leafValues>
        -5.3973406553268433e-02 5.9758794307708740e-01</leafValues></_>
    <_>
      <internalNodes>
        0 -1 65698 -8.3323363214731216e-03</internalNodes>
      <leafValues>
        -6.7683643102645874e-01 6.8173527717590332e-02</leafValues></_>
    <_>
      <internalNodes>
        0 -1 67634 3.4394038375467062e-03</internalNodes>
      <leafValues>
        -8.3181068301200867e-02 6.6051322221755981e-01</leafValues></_>
    <_>
      <internalNodes>
        0 -1 65604 -1.9947734472225420e-05</internalNodes>
      <leafValues>
        1.8638889491558075e-01 -2.8337499499320984e-01</leafValues></_>
    <_>
      <internalNodes>
        0 -1 64904 5.0778849981725216e-03</internalNodes>
      <leafValues>
        -1.0539629310369492e-01 5.1483082771301270e-01</leafValues></_>
    <_>
      <internalNodes>
        0 -1 28052 6.2429474201053381e-04</internalNodes>
      <leafValues>
        1.3437278568744659e-01 -3.7740683555603027e-01</leafValues></_>
    <_>
      <internalNodes>
        0 -1 22426 5.7237399742007256e-03</internalNodes>
      <leafValues>
        -7.8763045370578766e-02 6.8842566013336182e-01</leafValues></_>
    <_>
      <internalNodes>
        0 -1 37841 6.1918692663311958e-03</internalNodes>
      <leafValues>
        -8.8573835790157318e-02 6.0691517591476440e-01</leafValues></_>
    <_>
      <internalNodes>
        0 -1 54430 -3.9167711511254311e-03</internalNodes>
      <leafValues>
        -7.6334732770919800e-01 8.0054722726345062e-02</leafValues></_>
    <_>
      <internalNodes>
        0 -1 77299 -4.4351168908178806e-03</internalNodes>
      <leafValues>
        7.4851965904235840e-01 -9.0663716197013855e-02</leafValues></_>
    <_>
      <internalNodes>
        0 -1 71201 4.8052513739094138e-04</internalNodes>
      <leafValues>
        -2.5174489617347717e-01 2.2346094250679016e-01</leafValues></_>
    <_>
      <internalNodes>
        0 -1 44541 -1.4247199520468712e-02</internalNodes>
      <leafValues>
        3.9883184432983398e-01 -1.3964982330799103e-01</leafValues></_>
    <_>
      <internalNodes>
        0 -1 60018 -1.7241421155631542e-03</internalNodes>
      <leafValues>
        2.8027406334877014e-01 -2.1409770846366882e-01</leafValues></_>
    <_>
      <internalNodes>
        0 -1 71752 -7.7761575579643250e-02</internalNodes>
      <leafValues>
        -8.8819223642349243e-01 5.8764282613992691e-02</leafValues></_>
    <_>
      <internalNodes>
        0 -1 1496 -5.0293970853090286e-03</internalNodes>
      <leafValues>
        3.9770606160163879e-01 -1.5412473678588867e-01</leafValues></_>
    <_>
      <internalNodes>
        0 -1 77889 -1.6250044573098421e-03</internalNodes>
      <leafValues>
        -5.7397383451461792e-01 1.2603789567947388e-01</leafValues></_>
    <_>
      <internalNodes>
        0 -1 37343 -6.9738291203975677e-02</internalNodes>
      <leafValues>
        3.7342655658721924e-01 -1.7479455471038818e-01</leafValues></_>
    <_>
      <internalNodes>
        0 -1 741 4.0735388174653053e-03</internalNodes>
      <leafValues>
        6.5392710268497467e-02 -9.2664414644241333e-01</leafValues></_>
    <_>
      <internalNodes>
        0 -1 78175 -4.4473521411418915e-03</internalNodes>
      <leafValues>
        5.0062090158462524e-01 -1.3245290517807007e-01</leafValues></_></weakClassifiers></stage11>
</opencv_storage>
